<?xml version="1.0"?>
<opencv_storage>
<!-- Automatically converted from Mouth32_norm32x28, window size = 32x28 -->
<mouth_norm32x28 type_id="opencv-haar-classifier">
  <size>
    32 28</size>
  <stages>
    <_>
      <!-- stage 0 -->
      <trees>
        <_>
          <!-- tree 0 -->
          <_>
            <!-- root node -->
            <feature>
              <rects>
                <_>
                  1 1 11 24 -1.</_>
                <_>
                  1 9 11 8 3.</_></rects>
              <tilted>0</tilted></feature>
            <threshold>-0.0549719296395779</threshold>
            <left_val>0.8291568756103516</left_val>
            <right_val>-0.8973193764686585</right_val></_></_>
        <_>
          <!-- tree 1 -->
          <_>
            <!-- root node -->
            <feature>
              <rects>
                <_>
                  2 3 28 12 -1.</_>
                <_>
                  2 9 28 6 2.</_></rects>
              <tilted>0</tilted></feature>
            <threshold>-0.0598802790045738</threshold>
            <left_val>0.6240987777709961</left_val>
            <right_val>-0.6856542825698853</right_val></_></_>
        <_>
          <!-- tree 2 -->
          <_>
            <!-- root node -->
            <feature>
              <rects>
                <_>
                  1 12 6 9 -1.</_>
                <_>
                  4 12 3 9 2.</_></rects>
              <tilted>0</tilted></feature>
            <threshold>-3.0569799710065126e-003</threshold>
            <left_val>0.5053774714469910</left_val>
            <right_val>-0.6842722296714783</right_val></_></_>
        <_>
          <!-- tree 3 -->
          <_>
            <!-- root node -->
            <feature>
              <rects>
                <_>
                  23 10 8 18 -1.</_>
                <_>
                  23 19 8 9 2.</_></rects>
              <tilted>0</tilted></feature>
            <threshold>0.0123182302340865</threshold>
            <left_val>-0.8723608851432800</left_val>
            <right_val>0.4333786070346832</right_val></_></_></trees>
      <stage_threshold>-1.8338669538497925</stage_threshold>
      <parent>-1</parent>
      <next>-1</next></_>
    <_>
      <!-- stage 1 -->
      <trees>
        <_>
          <!-- tree 0 -->
          <_>
            <!-- root node -->
            <feature>
              <rects>
                <_>
                  2 1 28 24 -1.</_>
                <_>
                  2 9 28 8 3.</_></rects>
              <tilted>0</tilted></feature>
            <threshold>-0.1763806045055389</threshold>
            <left_val>0.6736686825752258</left_val>
            <right_val>-0.7673802971839905</right_val></_></_>
        <_>
          <!-- tree 1 -->
          <_>
            <!-- root node -->
            <feature>
              <rects>
                <_>
                  25 12 6 9 -1.</_>
                <_>
                  25 12 3 9 2.</_></rects>
              <tilted>0</tilted></feature>
            <threshold>-2.1503861062228680e-003</threshold>
            <left_val>0.3586842119693756</left_val>
            <right_val>-0.6455855965614319</right_val></_></_>
        <_>
          <!-- tree 2 -->
          <_>
            <!-- root node -->
            <feature>
              <rects>
                <_>
                  1 12 6 9 -1.</_>
                <_>
                  4 12 3 9 2.</_></rects>
              <tilted>0</tilted></feature>
            <threshold>-3.0498579144477844e-003</threshold>
            <left_val>0.4264141917228699</left_val>
            <right_val>-0.6495133042335510</right_val></_></_>
        <_>
          <!-- tree 3 -->
          <_>
            <!-- root node -->
            <feature>
              <rects>
                <_>
                  0 0 32 28 -1.</_>
                <_>
                  0 0 16 28 2.</_></rects>
              <tilted>0</tilted></feature>
            <threshold>-0.0281767006963491</threshold>
            <left_val>-0.9898393750190735</left_val>
            <right_val>0.2524423897266388</right_val></_></_>
        <_>
          <!-- tree 4 -->
          <_>
            <!-- root node -->
            <feature>
              <rects>
                <_>
                  0 1 32 27 -1.</_>
                <_>
                  16 1 16 27 2.</_></rects>
              <tilted>0</tilted></feature>
            <threshold>-0.0213839691132307</threshold>
            <left_val>-0.9557108879089356</left_val>
            <right_val>0.3744075000286102</right_val></_></_></trees>
      <stage_threshold>-1.4356290102005005</stage_threshold>
      <parent>0</parent>
      <next>-1</next></_>
    <_>
      <!-- stage 2 -->
      <trees>
        <_>
          <!-- tree 0 -->
          <_>
            <!-- root node -->
            <feature>
              <rects>
                <_>
                  4 10 4 18 -1.</_>
                <_>
                  4 19 4 9 2.</_></rects>
              <tilted>0</tilted></feature>
            <threshold>0.0144516797736287</threshold>
            <left_val>-0.8480060100555420</left_val>
            <right_val>0.4218654930591583</right_val></_></_>
        <_>
          <!-- tree 1 -->
          <_>
            <!-- root node -->
            <feature>
              <rects>
                <_>
                  2 4 28 10 -1.</_>
                <_>
                  2 9 28 5 2.</_></rects>
              <tilted>0</tilted></feature>
            <threshold>-0.0784930586814880</threshold>
            <left_val>0.5131911039352417</left_val>
            <right_val>-0.5742220282554627</right_val></_></_>
        <_>
          <!-- tree 2 -->
          <_>
            <!-- root node -->
            <feature>
              <rects>
                <_>
                  0 0 32 25 -1.</_>
                <_>
                  16 0 16 25 2.</_></rects>
              <tilted>0</tilted></feature>
            <threshold>0.0288634505122900</threshold>
            <left_val>0.2201704978942871</left_val>
            <right_val>-0.9610077738761902</right_val></_></_>
        <_>
          <!-- tree 3 -->
          <_>
            <!-- root node -->
            <feature>
              <rects>
                <_>
                  0 0 32 26 -1.</_>
                <_>
                  0 0 16 26 2.</_></rects>
              <tilted>0</tilted></feature>
            <threshold>0.0252212695777416</threshold>
            <left_val>0.2590760886669159</left_val>
            <right_val>-0.9733986854553223</right_val></_></_>
        <_>
          <!-- tree 4 -->
          <_>
            <!-- root node -->
            <feature>
              <rects>
                <_>
                  0 0 15 22 -1.</_>
                <_>
                  5 0 5 22 3.</_></rects>
              <tilted>0</tilted></feature>
            <threshold>-0.0120711801573634</threshold>
            <left_val>0.2781605124473572</left_val>
            <right_val>-0.6580166220664978</right_val></_></_>
        <_>
          <!-- tree 5 -->
          <_>
            <!-- root node -->
            <feature>
              <rects>
                <_>
                  24 2 4 14 -1.</_>
                <_>
                  24 9 4 7 2.</_></rects>
              <tilted>0</tilted></feature>
            <threshold>-3.7196481134742498e-003</threshold>
            <left_val>0.2028917968273163</left_val>
            <right_val>-0.8342906236648560</right_val></_></_>
        <_>
          <!-- tree 6 -->
          <_>
            <!-- root node -->
            <feature>
              <rects>
                <_>
                  1 10 18 6 -1.</_>
                <_>
                  1 12 18 2 3.</_></rects>
              <tilted>0</tilted></feature>
            <threshold>-0.0195651501417160</threshold>
            <left_val>0.6834055781364441</left_val>
            <right_val>-0.3163923919200897</right_val></_></_>
        <_>
          <!-- tree 7 -->
          <_>
            <!-- root node -->
            <feature>
              <rects>
                <_>
                  0 1 32 27 -1.</_>
                <_>
                  0 1 16 27 2.</_></rects>
              <tilted>0</tilted></feature>
            <threshold>-0.0290748104453087</threshold>
            <left_val>-0.9615330100059509</left_val>
            <right_val>0.2184009999036789</right_val></_></_></trees>
      <stage_threshold>-1.5971029996871948</stage_threshold>
      <parent>1</parent>
      <next>-1</next></_>
    <_>
      <!-- stage 3 -->
      <trees>
        <_>
          <!-- tree 0 -->
          <_>
            <!-- root node -->
            <feature>
              <rects>
                <_>
                  3 2 9 14 -1.</_>
                <_>
                  3 9 9 7 2.</_></rects>
              <tilted>0</tilted></feature>
            <threshold>-0.0265540909022093</threshold>
            <left_val>0.3839485943317413</left_val>
            <right_val>-0.7761979103088379</right_val></_></_>
        <_>
          <!-- tree 1 -->
          <_>
            <!-- root node -->
            <feature>
              <rects>
                <_>
                  26 12 4 9 -1.</_>
                <_>
                  26 12 2 9 2.</_></rects>
              <tilted>0</tilted></feature>
            <threshold>-7.8232388477772474e-004</threshold>
            <left_val>0.2848230004310608</left_val>
            <right_val>-0.6457651853561401</right_val></_></_>
        <_>
          <!-- tree 2 -->
          <_>
            <!-- root node -->
            <feature>
              <rects>
                <_>
                  0 2 32 26 -1.</_>
                <_>
                  16 2 16 26 2.</_></rects>
              <tilted>0</tilted></feature>
            <threshold>-0.0212468691170216</threshold>
            <left_val>-0.9337114095687866</left_val>
            <right_val>0.2361193001270294</right_val></_></_>
        <_>
          <!-- tree 3 -->
          <_>
            <!-- root node -->
            <feature>
              <rects>
                <_>
                  26 12 4 9 -1.</_>
                <_>
                  26 12 2 9 2.</_></rects>
              <tilted>0</tilted></feature>
            <threshold>-9.2274751514196396e-003</threshold>
            <left_val>-0.7887150049209595</left_val>
            <right_val>-0.0154778799042106</right_val></_></_>
        <_>
          <!-- tree 4 -->
          <_>
            <!-- root node -->
            <feature>
              <rects>
                <_>
                  2 12 4 9 -1.</_>
                <_>
                  4 12 2 9 2.</_></rects>
              <tilted>0</tilted></feature>
            <threshold>-1.4601550064980984e-003</threshold>
            <left_val>0.3685081899166107</left_val>
            <right_val>-0.6084219813346863</right_val></_></_>
        <_>
          <!-- tree 5 -->
          <_>
            <!-- root node -->
            <feature>
              <rects>
                <_>
                  20 0 8 28 -1.</_>
                <_>
                  20 14 8 14 2.</_></rects>
              <tilted>0</tilted></feature>
            <threshold>-0.0240674298256636</threshold>
            <left_val>-0.8659647107124329</left_val>
            <right_val>0.2016265988349915</right_val></_></_>
        <_>
          <!-- tree 6 -->
          <_>
            <!-- root node -->
            <feature>
              <rects>
                <_>
                  2 7 28 12 -1.</_>
                <_>
                  2 11 28 4 3.</_></rects>
              <tilted>0</tilted></feature>
            <threshold>-0.0964835584163666</threshold>
            <left_val>0.5474361777305603</left_val>
            <right_val>-0.3761554956436157</right_val></_></_>
        <_>
          <!-- tree 7 -->
          <_>
            <!-- root node -->
            <feature>
              <rects>
                <_>
                  9 0 16 28 -1.</_>
                <_>
                  17 0 8 14 2.</_>
                <_>
                  9 14 8 14 2.</_></rects>
              <tilted>0</tilted></feature>
            <threshold>-0.0321893617510796</threshold>
            <left_val>-0.8974614143371582</left_val>
            <right_val>0.1823900043964386</right_val></_></_>
        <_>
          <!-- tree 8 -->
          <_>
            <!-- root node -->
            <feature>
              <rects>
                <_>
                  4 24 24 4 -1.</_>
                <_>
                  4 26 24 2 2.</_></rects>
              <tilted>0</tilted></feature>
            <threshold>6.8724779412150383e-003</threshold>
            <left_val>-0.4669854938983917</left_val>
            <right_val>0.4398775994777679</right_val></_></_>
        <_>
          <!-- tree 9 -->
          <_>
            <!-- root node -->
            <feature>
              <rects>
                <_>
                  6 1 21 14 -1.</_>
                <_>
                  13 1 7 14 3.</_></rects>
              <tilted>0</tilted></feature>
            <threshold>8.5802581161260605e-003</threshold>
            <left_val>-0.5322539210319519</left_val>
            <right_val>0.3628790974617004</right_val></_></_>
        <_>
          <!-- tree 10 -->
          <_>
            <!-- root node -->
            <feature>
              <rects>
                <_>
                  0 23 32 5 -1.</_>
                <_>
                  16 23 16 5 2.</_></rects>
              <tilted>0</tilted></feature>
            <threshold>-0.0200298801064491</threshold>
            <left_val>-0.9387859106063843</left_val>
            <right_val>0.1565773934125900</right_val></_></_></trees>
      <stage_threshold>-1.8116140365600586</stage_threshold>
      <parent>2</parent>
      <next>-1</next></_>
    <_>
      <!-- stage 4 -->
      <trees>
        <_>
          <!-- tree 0 -->
          <_>
            <!-- root node -->
            <feature>
              <rects>
                <_>
                  2 1 28 24 -1.</_>
                <_>
                  2 9 28 8 3.</_></rects>
              <tilted>0</tilted></feature>
            <threshold>-0.1699714958667755</threshold>
            <left_val>0.4050875008106232</left_val>
            <right_val>-0.7255207896232605</right_val></_></_>
        <_>
          <!-- tree 1 -->
          <_>
            <!-- root node -->
            <feature>
              <rects>
                <_>
                  19 12 12 8 -1.</_>
                <_>
                  23 12 4 8 3.</_></rects>
              <tilted>0</tilted></feature>
            <threshold>-3.2895179465413094e-003</threshold>
            <left_val>0.3252483010292053</left_val>
            <right_val>-0.5893630981445313</right_val></_></_>
        <_>
          <!-- tree 2 -->
          <_>
            <!-- root node -->
            <feature>
              <rects>
                <_>
                  2 13 9 8 -1.</_>
                <_>
                  5 13 3 8 3.</_></rects>
              <tilted>0</tilted></feature>
            <threshold>-2.6073670014739037e-003</threshold>
            <left_val>0.3374618887901306</left_val>
            <right_val>-0.6180769801139832</right_val></_></_>
        <_>
          <!-- tree 3 -->
          <_>
            <!-- root node -->
            <feature>
              <rects>
                <_>
                  23 11 6 8 -1.</_>
                <_>
                  23 15 6 4 2.</_></rects>
              <tilted>0</tilted></feature>
            <threshold>4.4623930007219315e-003</threshold>
            <left_val>-0.5221033096313477</left_val>
            <right_val>0.2872565984725952</right_val></_></_>
        <_>
          <!-- tree 4 -->
          <_>
            <!-- root node -->
            <feature>
              <rects>
                <_>
                  1 2 28 26 -1.</_>
                <_>
                  1 15 28 13 2.</_></rects>
              <tilted>0</tilted></feature>
            <threshold>0.1623262017965317</threshold>
            <left_val>0.1828638017177582</left_val>
            <right_val>-0.9821962714195252</right_val></_></_>
        <_>
          <!-- tree 5 -->
          <_>
            <!-- root node -->
            <feature>
              <rects>
                <_>
                  21 8 10 20 -1.</_>
                <_>
                  21 18 10 10 2.</_></rects>
              <tilted>0</tilted></feature>
            <threshold>0.0283886808902025</threshold>
            <left_val>-0.6106349229812622</left_val>
            <right_val>0.1551593989133835</right_val></_></_>
        <_>
          <!-- tree 6 -->
          <_>
            <!-- root node -->
            <feature>
              <rects>
                <_>
                  0 19 32 9 -1.</_>
                <_>
                  16 19 16 9 2.</_></rects>
              <tilted>0</tilted></feature>
            <threshold>0.0240819007158279</threshold>
            <left_val>0.2250899970531464</left_val>
            <right_val>-0.8931564092636108</right_val></_></_>
        <_>
          <!-- tree 7 -->
          <_>
            <!-- root node -->
            <feature>
              <rects>
                <_>
                  4 22 24 6 -1.</_>
                <_>
                  4 25 24 3 2.</_></rects>
              <tilted>0</tilted></feature>
            <threshold>0.0124354800209403</threshold>
            <left_val>-0.4814622104167938</left_val>
            <right_val>0.3200984895229340</right_val></_></_>
        <_>
          <!-- tree 8 -->
          <_>
            <!-- root node -->
            <feature>
              <rects>
                <_>
                  0 2 32 20 -1.</_>
                <_>
                  16 2 16 20 2.</_></rects>
              <tilted>0</tilted></feature>
            <threshold>-0.0232203807681799</threshold>
            <left_val>-0.8385559916496277</left_val>
            <right_val>0.1775356978178024</right_val></_></_>
        <_>
          <!-- tree 9 -->
          <_>
            <!-- root node -->
            <feature>
              <rects>
                <_>
                  0 4 32 17 -1.</_>
                <_>
                  0 4 16 17 2.</_></rects>
              <tilted>0</tilted></feature>
            <threshold>-0.0350186899304390</threshold>
            <left_val>-0.9554287791252136</left_val>
            <right_val>0.1427067965269089</right_val></_></_>
        <_>
          <!-- tree 10 -->
          <_>
            <!-- root node -->
            <feature>
              <rects>
                <_>
                  3 12 6 8 -1.</_>
                <_>
                  3 16 6 4 2.</_></rects>
              <tilted>0</tilted></feature>
            <threshold>2.4221409112215042e-003</threshold>
            <left_val>-0.6725022792816162</left_val>
            <right_val>0.1761555969715118</right_val></_></_>
        <_>
          <!-- tree 11 -->
          <_>
            <!-- root node -->
            <feature>
              <rects>
                <_>
                  14 0 9 14 -1.</_>
                <_>
                  17 0 3 14 3.</_></rects>
              <tilted>0</tilted></feature>
            <threshold>6.6077569499611855e-004</threshold>
            <left_val>-0.2702831923961639</left_val>
            <right_val>0.1597519963979721</right_val></_></_>
        <_>
          <!-- tree 12 -->
          <_>
            <!-- root node -->
            <feature>
              <rects>
                <_>
                  1 12 12 3 -1.</_>
                <_>
                  7 12 6 3 2.</_></rects>
              <tilted>0</tilted></feature>
            <threshold>0.0488558597862720</threshold>
            <left_val>1.8068170174956322e-004</left_val>
            <right_val>-1.0821860351562500e+004</right_val></_></_>
        <_>
          <!-- tree 13 -->
          <_>
            <!-- root node -->
            <feature>
              <rects>
                <_>
                  3 8 26 4 -1.</_>
                <_>
                  16 8 13 2 2.</_>
                <_>
                  3 10 13 2 2.</_></rects>
              <tilted>0</tilted></feature>
            <threshold>9.4024408608675003e-003</threshold>
            <left_val>0.0510776191949844</left_val>
            <right_val>-0.4650734066963196</right_val></_></_>
        <_>
          <!-- tree 14 -->
          <_>
            <!-- root node -->
            <feature>
              <rects>
                <_>
                  8 0 12 19 -1.</_>
                <_>
                  12 0 4 19 3.</_></rects>
              <tilted>0</tilted></feature>
            <threshold>2.5879440363496542e-003</threshold>
            <left_val>-0.4474112987518311</left_val>
            <right_val>0.3324384093284607</right_val></_></_></trees>
      <stage_threshold>-2.0776500701904297</stage_threshold>
      <parent>3</parent>
      <next>-1</next></_>
    <_>
      <!-- stage 5 -->
      <trees>
        <_>
          <!-- tree 0 -->
          <_>
            <!-- root node -->
            <feature>
              <rects>
                <_>
                  0 11 8 9 -1.</_>
                <_>
                  4 11 4 9 2.</_></rects>
              <tilted>0</tilted></feature>
            <threshold>-5.8836340904235840e-003</threshold>
            <left_val>0.3703488111495972</left_val>
            <right_val>-0.6628823876380920</right_val></_></_>
        <_>
          <!-- tree 1 -->
          <_>
            <!-- root node -->
            <feature>
              <rects>
                <_>
                  12 0 20 28 -1.</_>
                <_>
                  12 14 20 14 2.</_></rects>
              <tilted>0</tilted></feature>
            <threshold>0.0896618515253067</threshold>
            <left_val>0.1751255989074707</left_val>
            <right_val>-0.9459937810897827</right_val></_></_>
        <_>
          <!-- tree 2 -->
          <_>
            <!-- root node -->
            <feature>
              <rects>
                <_>
                  2 0 27 28 -1.</_>
                <_>
                  2 14 27 14 2.</_></rects>
              <tilted>0</tilted></feature>
            <threshold>-0.0740856081247330</threshold>
            <left_val>-0.9534186124801636</left_val>
            <right_val>0.2176132053136826</right_val></_></_>
        <_>
          <!-- tree 3 -->
          <_>
            <!-- root node -->
            <feature>
              <rects>
                <_>
                  3 0 27 12 -1.</_>
                <_>
                  3 4 27 4 3.</_></rects>
              <tilted>0</tilted></feature>
            <threshold>0.0474834516644478</threshold>
            <left_val>-0.5260698199272156</left_val>
            <right_val>0.3236066997051239</right_val></_></_>
        <_>
          <!-- tree 4 -->
          <_>
            <!-- root node -->
            <feature>
              <rects>
                <_>
                  0 16 32 7 -1.</_>
                <_>
                  16 16 16 7 2.</_></rects>
              <tilted>0</tilted></feature>
            <threshold>-0.0224299207329750</threshold>
            <left_val>-0.8648638129234314</left_val>
            <right_val>0.1935406029224396</right_val></_></_>
        <_>
          <!-- tree 5 -->
          <_>
            <!-- root node -->
            <feature>
              <rects>
                <_>
                  6 23 21 3 -1.</_>
                <_>
                  13 23 7 3 3.</_></rects>
              <tilted>0</tilted></feature>
            <threshold>-3.4361900761723518e-003</threshold>
            <left_val>0.2786486148834229</left_val>
            <right_val>-0.4935879111289978</right_val></_></_>
        <_>
          <!-- tree 6 -->
          <_>
            <!-- root node -->
            <feature>
              <rects>
                <_>
                  9 12 14 16 -1.</_>
                <_>
                  9 20 14 8 2.</_></rects>
              <tilted>0</tilted></feature>
            <threshold>0.3276309967041016</threshold>
            <left_val>-0.0146806901320815</left_val>
            <right_val>-1.3088950195312500e+004</right_val></_></_>
        <_>
          <!-- tree 7 -->
          <_>
            <!-- root node -->
            <feature>
              <rects>
                <_>
                  0 0 32 27 -1.</_>
                <_>
                  0 0 16 27 2.</_></rects>
              <tilted>0</tilted></feature>
            <threshold>-0.0243237707763910</threshold>
            <left_val>-0.9427340030670166</left_val>
            <right_val>0.1712857931852341</right_val></_></_>
        <_>
          <!-- tree 8 -->
          <_>
            <!-- root node -->
            <feature>
              <rects>
                <_>
                  0 7 18 18 -1.</_>
                <_>
                  9 7 9 18 2.</_></rects>
              <tilted>0</tilted></feature>
            <threshold>0.2804600894451141</threshold>
            <left_val>-0.0479352585971355</left_val>
            <right_val>-3.1071469726562500e+003</right_val></_></_>
        <_>
          <!-- tree 9 -->
          <_>
            <!-- root node -->
            <feature>
              <rects>
                <_>
                  22 12 8 6 -1.</_>
                <_>
                  22 15 8 3 2.</_></rects>
              <tilted>0</tilted></feature>
            <threshold>3.0962149612605572e-003</threshold>
            <left_val>-0.5159726142883301</left_val>
            <right_val>0.2351011037826538</right_val></_></_>
        <_>
          <!-- tree 10 -->
          <_>
            <!-- root node -->
            <feature>
              <rects>
                <_>
                  2 0 6 18 -1.</_>
                <_>
                  2 9 6 9 2.</_></rects>
              <tilted>0</tilted></feature>
            <threshold>-0.0139545202255249</threshold>
            <left_val>0.2091629058122635</left_val>
            <right_val>-0.7100870013237000</right_val></_></_>
        <_>
          <!-- tree 11 -->
          <_>
            <!-- root node -->
            <feature>
              <rects>
                <_>
                  21 8 8 12 -1.</_>
                <_>
                  21 8 4 12 2.</_></rects>
              <tilted>0</tilted></feature>
            <threshold>-0.0155991297215223</threshold>
            <left_val>-0.8715507984161377</left_val>
            <right_val>0.0439552813768387</right_val></_></_>
        <_>
          <!-- tree 12 -->
          <_>
            <!-- root node -->
            <feature>
              <rects>
                <_>
                  0 0 32 12 -1.</_>
                <_>
                  16 0 16 12 2.</_></rects>
              <tilted>0</tilted></feature>
            <threshold>-0.0319717302918434</threshold>
            <left_val>-0.9074149131774902</left_val>
            <right_val>0.1699440926313400</right_val></_></_></trees>
      <stage_threshold>-1.5348449945449829</stage_threshold>
      <parent>4</parent>
      <next>-1</next></_>
    <_>
      <!-- stage 6 -->
      <trees>
        <_>
          <!-- tree 0 -->
          <_>
            <!-- root node -->
            <feature>
              <rects>
                <_>
                  3 10 6 18 -1.</_>
                <_>
                  3 19 6 9 2.</_></rects>
              <tilted>0</tilted></feature>
            <threshold>0.0268203206360340</threshold>
            <left_val>-0.6909961104393005</left_val>
            <right_val>0.3679305016994476</right_val></_></_>
        <_>
          <!-- tree 1 -->
          <_>
            <!-- root node -->
            <feature>
              <rects>
                <_>
                  10 24 12 4 -1.</_>
                <_>
                  10 26 12 2 2.</_></rects>
              <tilted>0</tilted></feature>
            <threshold>4.2348499409854412e-003</threshold>
            <left_val>-0.4067277908325195</left_val>
            <right_val>0.3557527065277100</right_val></_></_>
        <_>
          <!-- tree 2 -->
          <_>
            <!-- root node -->
            <feature>
              <rects>
                <_>
                  0 2 16 26 -1.</_>
                <_>
                  0 15 16 13 2.</_></rects>
              <tilted>0</tilted></feature>
            <threshold>0.0918282419443130</threshold>
            <left_val>0.1441463977098465</left_val>
            <right_val>-0.9028658866882324</right_val></_></_>
        <_>
          <!-- tree 3 -->
          <_>
            <!-- root node -->
            <feature>
              <rects>
                <_>
                  22 12 8 6 -1.</_>
                <_>
                  22 15 8 3 2.</_></rects>
              <tilted>0</tilted></feature>
            <threshold>5.3683891892433167e-003</threshold>
            <left_val>-0.4261054992675781</left_val>
            <right_val>0.2275682985782623</right_val></_></_>
        <_>
          <!-- tree 4 -->
          <_>
            <!-- root node -->
            <feature>
              <rects>
                <_>
                  0 10 6 6 -1.</_>
                <_>
                  3 10 3 6 2.</_></rects>
              <tilted>0</tilted></feature>
            <threshold>-2.4217769969254732e-003</threshold>
            <left_val>0.2787933945655823</left_val>
            <right_val>-0.5258623957633972</right_val></_></_>
        <_>
          <!-- tree 5 -->
          <_>
            <!-- root node -->
            <feature>
              <rects>
                <_>
                  14 0 14 28 -1.</_>
                <_>
                  14 14 14 14 2.</_></rects>
              <tilted>0</tilted></feature>
            <threshold>-0.0627506971359253</threshold>
            <left_val>-0.9374361038208008</left_val>
            <right_val>0.0997890532016754</right_val></_></_>
        <_>
          <!-- tree 6 -->
          <_>
            <!-- root node -->
            <feature>
              <rects>
                <_>
                  0 1 32 25 -1.</_>
                <_>
                  16 1 16 25 2.</_></rects>
              <tilted>0</tilted></feature>
            <threshold>-0.0244003497064114</threshold>
            <left_val>-0.9571384787559509</left_val>
            <right_val>0.1059378981590271</right_val></_></_>
        <_>
          <!-- tree 7 -->
          <_>
            <!-- root node -->
            <feature>
              <rects>
                <_>
                  2 9 28 15 -1.</_>
                <_>
                  2 9 14 15 2.</_></rects>
              <tilted>0</tilted></feature>
            <threshold>-0.0265739206224680</threshold>
            <left_val>-0.8413954973220825</left_val>
            <right_val>0.1259617954492569</right_val></_></_>
        <_>
          <!-- tree 8 -->
          <_>
            <!-- root node -->
            <feature>
              <rects>
                <_>
                  2 1 28 16 -1.</_>
                <_>
                  2 9 28 8 2.</_></rects>
              <tilted>0</tilted></feature>
            <threshold>-0.0910722985863686</threshold>
            <left_val>0.2128884941339493</left_val>
            <right_val>-0.5760803818702698</right_val></_></_>
        <_>
          <!-- tree 9 -->
          <_>
            <!-- root node -->
            <feature>
              <rects>
                <_>
                  10 3 20 11 -1.</_>
                <_>
                  10 3 10 11 2.</_></rects>
              <tilted>0</tilted></feature>
            <threshold>6.5910369157791138e-003</threshold>
            <left_val>-0.3081918060779572</left_val>
            <right_val>0.2279935032129288</right_val></_></_>
        <_>
          <!-- tree 10 -->
          <_>
            <!-- root node -->
            <feature>
              <rects>
                <_>
                  9 8 14 9 -1.</_>
                <_>
                  9 11 14 3 3.</_></rects>
              <tilted>0</tilted></feature>
            <threshold>-0.0365487709641457</threshold>
            <left_val>0.4514499008655548</left_val>
            <right_val>-0.2724595069885254</right_val></_></_>
        <_>
          <!-- tree 11 -->
          <_>
            <!-- root node -->
            <feature>
              <rects>
                <_>
                  14 0 18 22 -1.</_>
                <_>
                  20 0 6 22 3.</_></rects>
              <tilted>0</tilted></feature>
            <threshold>0.0311999507248402</threshold>
            <left_val>0.1184412986040115</left_val>
            <right_val>-0.8041393756866455</right_val></_></_>
        <_>
          <!-- tree 12 -->
          <_>
            <!-- root node -->
            <feature>
              <rects>
                <_>
                  10 8 11 6 -1.</_>
                <_>
                  10 11 11 3 2.</_></rects>
              <tilted>0</tilted></feature>
            <threshold>0.0127457696944475</threshold>
            <left_val>-0.1723802983760834</left_val>
            <right_val>0.7776694893836975</right_val></_></_>
        <_>
          <!-- tree 13 -->
          <_>
            <!-- root node -->
            <feature>
              <rects>
                <_>
                  24 17 6 6 -1.</_>
                <_>
                  24 17 3 6 2.</_></rects>
              <tilted>0</tilted></feature>
            <threshold>-1.5935170231387019e-003</threshold>
            <left_val>0.2712041139602661</left_val>
            <right_val>-0.1954385042190552</right_val></_></_>
        <_>
          <!-- tree 14 -->
          <_>
            <!-- root node -->
            <feature>
              <rects>
                <_>
                  7 15 9 10 -1.</_>
                <_>
                  10 15 3 10 3.</_></rects>
              <tilted>0</tilted></feature>
            <threshold>-7.5941397808492184e-003</threshold>
            <left_val>-0.8854658007621765</left_val>
            <right_val>0.1167889982461929</right_val></_></_>
        <_>
          <!-- tree 15 -->
          <_>
            <!-- root node -->
            <feature>
              <rects>
                <_>
                  7 5 18 17 -1.</_>
                <_>
                  7 5 9 17 2.</_></rects>
              <tilted>0</tilted></feature>
            <threshold>0.0208703093230724</threshold>
            <left_val>0.0929492115974426</left_val>
            <right_val>-0.8867490291595459</right_val></_></_>
        <_>
          <!-- tree 16 -->
          <_>
            <!-- root node -->
            <feature>
              <rects>
                <_>
                  0 0 32 28 -1.</_>
                <_>
                  16 0 16 28 2.</_></rects>
              <tilted>0</tilted></feature>
            <threshold>0.0247482992708683</threshold>
            <left_val>0.0809358432888985</left_val>
            <right_val>-0.8847898840904236</right_val></_></_>
        <_>
          <!-- tree 17 -->
          <_>
            <!-- root node -->
            <feature>
              <rects>
                <_>
                  2 21 30 7 -1.</_>
                <_>
                  12 21 10 7 3.</_></rects>
              <tilted>0</tilted></feature>
            <threshold>-0.0143385902047157</threshold>
            <left_val>0.2749730050563812</left_val>
            <right_val>-0.2726894915103912</right_val></_></_>
        <_>
          <!-- tree 18 -->
          <_>
            <!-- root node -->
            <feature>
              <rects>
                <_>
                  10 6 12 9 -1.</_>
                <_>
                  10 9 12 3 3.</_></rects>
              <tilted>0</tilted></feature>
            <threshold>0.0256072599440813</threshold>
            <left_val>-0.1458860933780670</left_val>
            <right_val>0.6699196100234985</right_val></_></_></trees>
      <stage_threshold>-1.8638960123062134</stage_threshold>
      <parent>5</parent>
      <next>-1</next></_>
    <_>
      <!-- stage 7 -->
      <trees>
        <_>
          <!-- tree 0 -->
          <_>
            <!-- root node -->
            <feature>
              <rects>
                <_>
                  8 0 16 12 -1.</_>
                <_>
                  8 4 16 4 3.</_></rects>
              <tilted>0</tilted></feature>
            <threshold>0.0460935793817043</threshold>
            <left_val>-0.3614025115966797</left_val>
            <right_val>0.4754992127418518</right_val></_></_>
        <_>
          <!-- tree 1 -->
          <_>
            <!-- root node -->
            <feature>
              <rects>
                <_>
                  17 0 15 22 -1.</_>
                <_>
                  22 0 5 22 3.</_></rects>
              <tilted>0</tilted></feature>
            <threshold>-0.0150274699553847</threshold>
            <left_val>0.3276642858982086</left_val>
            <right_val>-0.4897398054599762</right_val></_></_>
        <_>
          <!-- tree 2 -->
          <_>
            <!-- root node -->
            <feature>
              <rects>
                <_>
                  1 12 8 6 -1.</_>
                <_>
                  1 15 8 3 2.</_></rects>
              <tilted>0</tilted></feature>
            <threshold>4.1981330141425133e-003</threshold>
            <left_val>-0.5115687847137451</left_val>
            <right_val>0.2748869955539703</right_val></_></_>
        <_>
          <!-- tree 3 -->
          <_>
            <!-- root node -->
            <feature>
              <rects>
                <_>
                  25 16 6 12 -1.</_>
                <_>
                  28 16 3 6 2.</_>
                <_>
                  25 22 3 6 2.</_></rects>
              <tilted>0</tilted></feature>
            <threshold>2.1174289286136627e-003</threshold>
            <left_val>-0.3601036071777344</left_val>
            <right_val>0.2469466030597687</right_val></_></_>
        <_>
          <!-- tree 4 -->
          <_>
            <!-- root node -->
            <feature>
              <rects>
                <_>
                  0 0 32 28 -1.</_>
                <_>
                  16 0 16 28 2.</_></rects>
              <tilted>0</tilted></feature>
            <threshold>-0.0186460707336664</threshold>
            <left_val>-0.8480684161186218</left_val>
            <right_val>0.1526748985052109</right_val></_></_>
        <_>
          <!-- tree 5 -->
          <_>
            <!-- root node -->
            <feature>
              <rects>
                <_>
                  19 8 13 20 -1.</_>
                <_>
                  19 18 13 10 2.</_></rects>
              <tilted>0</tilted></feature>
            <threshold>0.0376234911382198</threshold>
            <left_val>-0.7057371139526367</left_val>
            <right_val>0.1843234002590179</right_val></_></_>
        <_>
          <!-- tree 6 -->
          <_>
            <!-- root node -->
            <feature>
              <rects>
                <_>
                  9 5 14 4 -1.</_>
                <_>
                  9 7 14 2 2.</_></rects>
              <tilted>0</tilted></feature>
            <threshold>0.0748412534594536</threshold>
            <left_val>-0.0312443505972624</left_val>
            <right_val>-2.3930359375000000e+004</right_val></_></_>
        <_>
          <!-- tree 7 -->
          <_>
            <!-- root node -->
            <feature>
              <rects>
                <_>
                  0 2 32 26 -1.</_>
                <_>
                  0 2 16 26 2.</_></rects>
              <tilted>0</tilted></feature>
            <threshold>-0.0243419092148542</threshold>
            <left_val>-0.8812118768692017</left_val>
            <right_val>0.1347315013408661</right_val></_></_>
        <_>
          <!-- tree 8 -->
          <_>
            <!-- root node -->
            <feature>
              <rects>
                <_>
                  2 13 4 9 -1.</_>
                <_>
                  4 13 2 9 2.</_></rects>
              <tilted>0</tilted></feature>
            <threshold>-9.7172497771680355e-004</threshold>
            <left_val>0.1939349025487900</left_val>
            <right_val>-0.5362601280212402</right_val></_></_>
        <_>
          <!-- tree 9 -->
          <_>
            <!-- root node -->
            <feature>
              <rects>
                <_>
                  16 0 16 28 -1.</_>
                <_>
                  16 14 16 14 2.</_></rects>
              <tilted>0</tilted></feature>
            <threshold>0.0688752606511116</threshold>
            <left_val>0.1278229057788849</left_val>
            <right_val>-0.8641716241836548</right_val></_></_>
        <_>
          <!-- tree 10 -->
          <_>
            <!-- root node -->
            <feature>
              <rects>
                <_>
                  9 7 10 6 -1.</_>
                <_>
                  9 9 10 2 3.</_></rects>
              <tilted>0</tilted></feature>
            <threshold>0.0162502508610487</threshold>
            <left_val>-0.2156929969787598</left_val>
            <right_val>0.6339129209518433</right_val></_></_>
        <_>
          <!-- tree 11 -->
          <_>
            <!-- root node -->
            <feature>
              <rects>
                <_>
                  22 0 2 28 -1.</_>
                <_>
                  22 14 2 14 2.</_></rects>
              <tilted>0</tilted></feature>
            <threshold>-8.7500242516398430e-003</threshold>
            <left_val>-0.7793868780136108</left_val>
            <right_val>0.1432974934577942</right_val></_></_>
        <_>
          <!-- tree 12 -->
          <_>
            <!-- root node -->
            <feature>
              <rects>
                <_>
                  2 26 28 2 -1.</_>
                <_>
                  2 27 28 1 2.</_></rects>
              <tilted>0</tilted></feature>
            <threshold>1.2029149802401662e-003</threshold>
            <left_val>-0.3922030031681061</left_val>
            <right_val>0.3015795052051544</right_val></_></_>
        <_>
          <!-- tree 13 -->
          <_>
            <!-- root node -->
            <feature>
              <rects>
                <_>
                  26 16 6 9 -1.</_>
                <_>
                  26 19 6 3 3.</_></rects>
              <tilted>0</tilted></feature>
            <threshold>0.0122588295489550</threshold>
            <left_val>0.0947007164359093</left_val>
            <right_val>-0.7632024288177490</right_val></_></_>
        <_>
          <!-- tree 14 -->
          <_>
            <!-- root node -->
            <feature>
              <rects>
                <_>
                  0 16 6 9 -1.</_>
                <_>
                  0 19 6 3 3.</_></rects>
              <tilted>0</tilted></feature>
            <threshold>-8.7468419224023819e-003</threshold>
            <left_val>-0.9242777228355408</left_val>
            <right_val>0.0818576067686081</right_val></_></_>
        <_>
          <!-- tree 15 -->
          <_>
            <!-- root node -->
            <feature>
              <rects>
                <_>
                  0 6 32 18 -1.</_>
                <_>
                  0 6 16 18 2.</_></rects>
              <tilted>0</tilted></feature>
            <threshold>0.0326136797666550</threshold>
            <left_val>0.0998019725084305</left_val>
            <right_val>-0.9115539789199829</right_val></_></_>
        <_>
          <!-- tree 16 -->
          <_>
            <!-- root node -->
            <feature>
              <rects>
                <_>
                  9 0 9 6 -1.</_>
                <_>
                  12 0 3 6 3.</_></rects>
              <tilted>0</tilted></feature>
            <threshold>2.1279701031744480e-003</threshold>
            <left_val>-0.3315956890583038</left_val>
            <right_val>0.2865143120288849</right_val></_></_>
        <_>
          <!-- tree 17 -->
          <_>
            <!-- root node -->
            <feature>
              <rects>
                <_>
                  0 23 32 2 -1.</_>
                <_>
                  0 23 16 2 2.</_></rects>
              <tilted>0</tilted></feature>
            <threshold>-7.3482920415699482e-003</threshold>
            <left_val>-0.7568637132644653</left_val>
            <right_val>0.1356528997421265</right_val></_></_>
        <_>
          <!-- tree 18 -->
          <_>
            <!-- root node -->
            <feature>
              <rects>
                <_>
                  5 7 22 12 -1.</_>
                <_>
                  16 7 11 12 2.</_></rects>
              <tilted>0</tilted></feature>
            <threshold>0.1746333986520767</threshold>
            <left_val>-0.0310141108930111</left_val>
            <right_val>-7.0661593750000000e+004</right_val></_></_>
        <_>
          <!-- tree 19 -->
          <_>
            <!-- root node -->
            <feature>
              <rects>
                <_>
                  4 21 27 2 -1.</_>
                <_>
                  13 21 9 2 3.</_></rects>
              <tilted>0</tilted></feature>
            <threshold>-6.9424468092620373e-003</threshold>
            <left_val>0.2212229073047638</left_val>
            <right_val>-0.1184777021408081</right_val></_></_>
        <_>
          <!-- tree 20 -->
          <_>
            <!-- root node -->
            <feature>
              <rects>
                <_>
                  1 0 9 18 -1.</_>
                <_>
                  1 9 9 9 2.</_></rects>
              <tilted>0</tilted></feature>
            <threshold>-0.0278455391526222</threshold>
            <left_val>0.2012898027896881</left_val>
            <right_val>-0.5174139738082886</right_val></_></_>
        <_>
          <!-- tree 21 -->
          <_>
            <!-- root node -->
            <feature>
              <rects>
                <_>
                  5 9 27 6 -1.</_>
                <_>
                  5 12 27 3 2.</_></rects>
              <tilted>0</tilted></feature>
            <threshold>0.0257405191659927</threshold>
            <left_val>-0.1672141999006271</left_val>
            <right_val>0.6513928174972534</right_val></_></_>
        <_>
          <!-- tree 22 -->
          <_>
            <!-- root node -->
            <feature>
              <rects>
                <_>
                  5 0 22 15 -1.</_>
                <_>
                  5 5 22 5 3.</_></rects>
              <tilted>0</tilted></feature>
            <threshold>0.1131855994462967</threshold>
            <left_val>-0.2007631063461304</left_val>
            <right_val>0.5166404247283936</right_val></_></_></trees>
      <stage_threshold>-1.9567329883575439</stage_threshold>
      <parent>6</parent>
      <next>-1</next></_>
    <_>
      <!-- stage 8 -->
      <trees>
        <_>
          <!-- tree 0 -->
          <_>
            <!-- root node -->
            <feature>
              <rects>
                <_>
                  1 11 6 9 -1.</_>
                <_>
                  4 11 3 9 2.</_></rects>
              <tilted>0</tilted></feature>
            <threshold>-3.2565710134804249e-003</threshold>
            <left_val>0.2806695103645325</left_val>
            <right_val>-0.6708363890647888</right_val></_></_>
        <_>
          <!-- tree 1 -->
          <_>
            <!-- root node -->
            <feature>
              <rects>
                <_>
                  17 0 8 5 -1.</_>
                <_>
                  17 0 4 5 2.</_></rects>
              <tilted>0</tilted></feature>
            <threshold>1.7555010272189975e-003</threshold>
            <left_val>-0.3242976069450378</left_val>
            <right_val>0.2527157068252564</right_val></_></_>
        <_>
          <!-- tree 2 -->
          <_>
            <!-- root node -->
            <feature>
              <rects>
                <_>
                  2 2 28 14 -1.</_>
                <_>
                  2 9 28 7 2.</_></rects>
              <tilted>0</tilted></feature>
            <threshold>-0.0924953818321228</threshold>
            <left_val>0.2113649994134903</left_val>
            <right_val>-0.5375146269798279</right_val></_></_>
        <_>
          <!-- tree 3 -->
          <_>
            <!-- root node -->
            <feature>
              <rects>
                <_>
                  13 0 16 28 -1.</_>
                <_>
                  13 14 16 14 2.</_></rects>
              <tilted>0</tilted></feature>
            <threshold>-0.0638334974646568</threshold>
            <left_val>-0.8971967101097107</left_val>
            <right_val>0.0742566287517548</right_val></_></_>
        <_>
          <!-- tree 4 -->
          <_>
            <!-- root node -->
            <feature>
              <rects>
                <_>
                  0 0 32 28 -1.</_>
                <_>
                  16 0 16 28 2.</_></rects>
              <tilted>0</tilted></feature>
            <threshold>-0.0281474608927965</threshold>
            <left_val>-0.9737513065338135</left_val>
            <right_val>0.1057005971670151</right_val></_></_>
        <_>
          <!-- tree 5 -->
          <_>
            <!-- root node -->
            <feature>
              <rects>
                <_>
                  8 23 18 3 -1.</_>
                <_>
                  14 23 6 3 3.</_></rects>
              <tilted>0</tilted></feature>
            <threshold>-1.9387899665161967e-003</threshold>
            <left_val>0.2218939065933228</left_val>
            <right_val>-0.4235700964927673</right_val></_></_>
        <_>
          <!-- tree 6 -->
          <_>
            <!-- root node -->
            <feature>
              <rects>
                <_>
                  5 22 7 6 -1.</_>
                <_>
                  5 25 7 3 2.</_></rects>
              <tilted>0</tilted></feature>
            <threshold>2.9240360017865896e-003</threshold>
            <left_val>-0.3546177148818970</left_val>
            <right_val>0.2793676853179932</right_val></_></_>
        <_>
          <!-- tree 7 -->
          <_>
            <!-- root node -->
            <feature>
              <rects>
                <_>
                  20 16 12 12 -1.</_>
                <_>
                  20 22 12 6 2.</_></rects>
              <tilted>0</tilted></feature>
            <threshold>0.0581607893109322</threshold>
            <left_val>0.1052806973457336</left_val>
            <right_val>-0.9215316176414490</right_val></_></_>
        <_>
          <!-- tree 8 -->
          <_>
            <!-- root node -->
            <feature>
              <rects>
                <_>
                  0 16 32 12 -1.</_>
                <_>
                  0 16 16 6 2.</_>
                <_>
                  16 22 16 6 2.</_></rects>
              <tilted>0</tilted></feature>
            <threshold>-0.0255317594856024</threshold>
            <left_val>-0.8150920867919922</left_val>
            <right_val>0.0985027179121971</right_val></_></_>
        <_>
          <!-- tree 9 -->
          <_>
            <!-- root node -->
            <feature>
              <rects>
                <_>
                  6 0 20 24 -1.</_>
                <_>
                  6 8 20 8 3.</_></rects>
              <tilted>0</tilted></feature>
            <threshold>-0.3534862101078033</threshold>
            <left_val>-0.8834924101829529</left_val>
            <right_val>9.6606453880667686e-003</right_val></_></_>
        <_>
          <!-- tree 10 -->
          <_>
            <!-- root node -->
            <feature>
              <rects>
                <_>
                  2 10 28 6 -1.</_>
                <_>
                  2 12 28 2 3.</_></rects>
              <tilted>0</tilted></feature>
            <threshold>-0.0258937291800976</threshold>
            <left_val>0.4121038019657135</left_val>
            <right_val>-0.2362193018198013</right_val></_></_>
        <_>
          <!-- tree 11 -->
          <_>
            <!-- root node -->
            <feature>
              <rects>
                <_>
                  12 10 9 6 -1.</_>
                <_>
                  12 12 9 2 3.</_></rects>
              <tilted>0</tilted></feature>
            <threshold>8.6895842105150223e-003</threshold>
            <left_val>-0.1596059948205948</left_val>
            <right_val>0.6752343177795410</right_val></_></_>
        <_>
          <!-- tree 12 -->
          <_>
            <!-- root node -->
            <feature>
              <rects>
                <_>
                  6 18 20 9 -1.</_>
                <_>
                  16 18 10 9 2.</_></rects>
              <tilted>0</tilted></feature>
            <threshold>0.0174988098442554</threshold>
            <left_val>0.1161639988422394</left_val>
            <right_val>-0.8561140894889832</right_val></_></_>
        <_>
          <!-- tree 13 -->
          <_>
            <!-- root node -->
            <feature>
              <rects>
                <_>
                  28 5 4 9 -1.</_>
                <_>
                  28 5 2 9 2.</_></rects>
              <tilted>0</tilted></feature>
            <threshold>-8.3752092905342579e-004</threshold>
            <left_val>0.2491658926010132</left_val>
            <right_val>-0.3631714880466461</right_val></_></_>
        <_>
          <!-- tree 14 -->
          <_>
            <!-- root node -->
            <feature>
              <rects>
                <_>
                  10 3 12 24 -1.</_>
                <_>
                  10 3 6 12 2.</_>
                <_>
                  16 15 6 12 2.</_></rects>
              <tilted>0</tilted></feature>
            <threshold>-0.0221203994005919</threshold>
            <left_val>-0.9029269218444824</left_val>
            <right_val>0.0890514701604843</right_val></_></_>
        <_>
          <!-- tree 15 -->
          <_>
            <!-- root node -->
            <feature>
              <rects>
                <_>
                  17 0 6 12 -1.</_>
                <_>
                  17 0 3 12 2.</_></rects>
              <tilted>0</tilted></feature>
            <threshold>0.0168573390692472</threshold>
            <left_val>0.0278293695300817</left_val>
            <right_val>-0.8020638823509216</right_val></_></_>
        <_>
          <!-- tree 16 -->
          <_>
            <!-- root node -->
            <feature>
              <rects>
                <_>
                  9 0 6 12 -1.</_>
                <_>
                  12 0 3 12 2.</_></rects>
              <tilted>0</tilted></feature>
            <threshold>1.7205410404130816e-003</threshold>
            <left_val>-0.3911170959472656</left_val>
            <right_val>0.2613731026649475</right_val></_></_>
        <_>
          <!-- tree 17 -->
          <_>
            <!-- root node -->
            <feature>
              <rects>
                <_>
                  24 1 6 27 -1.</_>
                <_>
                  24 10 6 9 3.</_></rects>
              <tilted>0</tilted></feature>
            <threshold>-0.0378003604710102</threshold>
            <left_val>0.2595567107200623</left_val>
            <right_val>-0.6587154269218445</right_val></_></_>
        <_>
          <!-- tree 18 -->
          <_>
            <!-- root node -->
            <feature>
              <rects>
                <_>
                  8 0 16 4 -1.</_>
                <_>
                  8 2 16 2 2.</_></rects>
              <tilted>0</tilted></feature>
            <threshold>1.5811959747225046e-003</threshold>
            <left_val>-0.3473375141620636</left_val>
            <right_val>0.2194774001836777</right_val></_></_>
        <_>
          <!-- tree 19 -->
          <_>
            <!-- root node -->
            <feature>
              <rects>
                <_>
                  23 0 9 6 -1.</_>
                <_>
                  23 2 9 2 3.</_></rects>
              <tilted>0</tilted></feature>
            <threshold>-5.7888911105692387e-003</threshold>
            <left_val>-0.7202464938163757</left_val>
            <right_val>0.0950533077120781</right_val></_></_>
        <_>
          <!-- tree 20 -->
          <_>
            <!-- root node -->
            <feature>
              <rects>
                <_>
                  0 0 9 6 -1.</_>
                <_>
                  0 2 9 2 3.</_></rects>
              <tilted>0</tilted></feature>
            <threshold>8.0205937847495079e-003</threshold>
            <left_val>0.0780785083770752</left_val>
            <right_val>-0.8753510117530823</right_val></_></_>
        <_>
          <!-- tree 21 -->
          <_>
            <!-- root node -->
            <feature>
              <rects>
                <_>
                  22 11 8 6 -1.</_>
                <_>
                  22 14 8 3 2.</_></rects>
              <tilted>0</tilted></feature>
            <threshold>3.4967209212481976e-003</threshold>
            <left_val>-0.2983959913253784</left_val>
            <right_val>0.1625899970531464</right_val></_></_>
        <_>
          <!-- tree 22 -->
          <_>
            <!-- root node -->
            <feature>
              <rects>
                <_>
                  11 8 10 6 -1.</_>
                <_>
                  11 10 10 2 3.</_></rects>
              <tilted>0</tilted></feature>
            <threshold>0.0173688195645809</threshold>
            <left_val>-0.1278195977210999</left_val>
            <right_val>0.7543224096298218</right_val></_></_></trees>
      <stage_threshold>-1.9246640205383301</stage_threshold>
      <parent>7</parent>
      <next>-1</next></_>
    <_>
      <!-- stage 9 -->
      <trees>
        <_>
          <!-- tree 0 -->
          <_>
            <!-- root node -->
            <feature>
              <rects>
                <_>
                  0 10 10 13 -1.</_>
                <_>
                  5 10 5 13 2.</_></rects>
              <tilted>0</tilted></feature>
            <threshold>-8.4566492587327957e-003</threshold>
            <left_val>0.3926745057106018</left_val>
            <right_val>-0.6162843704223633</right_val></_></_>
        <_>
          <!-- tree 1 -->
          <_>
            <!-- root node -->
            <feature>
              <rects>
                <_>
                  1 2 30 4 -1.</_>
                <_>
                  11 2 10 4 3.</_></rects>
              <tilted>0</tilted></feature>
            <threshold>0.0100601799786091</threshold>
            <left_val>-0.3993414044380188</left_val>
            <right_val>0.3279061913490295</right_val></_></_>
        <_>
          <!-- tree 2 -->
          <_>
            <!-- root node -->
            <feature>
              <rects>
                <_>
                  0 0 7 18 -1.</_>
                <_>
                  0 9 7 9 2.</_></rects>
              <tilted>0</tilted></feature>
            <threshold>-8.8061373680830002e-003</threshold>
            <left_val>0.1512009054422379</left_val>
            <right_val>-0.7885552048683167</right_val></_></_>
        <_>
          <!-- tree 3 -->
          <_>
            <!-- root node -->
            <feature>
              <rects>
                <_>
                  21 0 5 28 -1.</_>
                <_>
                  21 14 5 14 2.</_></rects>
              <tilted>0</tilted></feature>
            <threshold>0.0333647690713406</threshold>
            <left_val>0.0580990090966225</left_val>
            <right_val>-0.8629214167594910</right_val></_></_>
        <_>
          <!-- tree 4 -->
          <_>
            <!-- root node -->
            <feature>
              <rects>
                <_>
                  6 0 5 28 -1.</_>
                <_>
                  6 14 5 14 2.</_></rects>
              <tilted>0</tilted></feature>
            <threshold>-0.0112741803750396</threshold>
            <left_val>-0.7387003898620606</left_val>
            <right_val>0.1535006016492844</right_val></_></_>
        <_>
          <!-- tree 5 -->
          <_>
            <!-- root node -->
            <feature>
              <rects>
                <_>
                  5 22 23 6 -1.</_>
                <_>
                  5 25 23 3 2.</_></rects>
              <tilted>0</tilted></feature>
            <threshold>0.3056339025497437</threshold>
            <left_val>-0.0346565507352352</left_val>
            <right_val>-1.4677570312500000e+004</right_val></_></_>
        <_>
          <!-- tree 6 -->
          <_>
            <!-- root node -->
            <feature>
              <rects>
                <_>
                  0 10 6 18 -1.</_>
                <_>
                  0 10 3 9 2.</_>
                <_>
                  3 19 3 9 2.</_></rects>
              <tilted>0</tilted></feature>
            <threshold>3.7368170451372862e-003</threshold>
            <left_val>-0.4197590053081513</left_val>
            <right_val>0.2613221108913422</right_val></_></_>
        <_>
          <!-- tree 7 -->
          <_>
            <!-- root node -->
            <feature>
              <rects>
                <_>
                  5 22 23 6 -1.</_>
                <_>
                  5 25 23 3 2.</_></rects>
              <tilted>0</tilted></feature>
            <threshold>0.0175853092223406</threshold>
            <left_val>-0.3210254907608032</left_val>
            <right_val>0.3478881120681763</right_val></_></_>
        <_>
          <!-- tree 8 -->
          <_>
            <!-- root node -->
            <feature>
              <rects>
                <_>
                  0 0 9 6 -1.</_>
                <_>
                  0 2 9 2 3.</_></rects>
              <tilted>0</tilted></feature>
            <threshold>-6.9990172050893307e-003</threshold>
            <left_val>-0.8443018794059753</left_val>
            <right_val>0.1258091926574707</right_val></_></_>
        <_>
          <!-- tree 9 -->
          <_>
            <!-- root node -->
            <feature>
              <rects>
                <_>
                  23 9 9 4 -1.</_>
                <_>
                  23 11 9 2 2.</_></rects>
              <tilted>0</tilted></feature>
            <threshold>-2.7959370054304600e-003</threshold>
            <left_val>0.2220523953437805</left_val>
            <right_val>-0.4293751120567322</right_val></_></_>
        <_>
          <!-- tree 10 -->
          <_>
            <!-- root node -->
            <feature>
              <rects>
                <_>
                  1 1 30 19 -1.</_>
                <_>
                  16 1 15 19 2.</_></rects>
              <tilted>0</tilted></feature>
            <threshold>0.0269672702997923</threshold>
            <left_val>0.0871249884366989</left_val>
            <right_val>-0.8200281858444214</right_val></_></_>
        <_>
          <!-- tree 11 -->
          <_>
            <!-- root node -->
            <feature>
              <rects>
                <_>
                  25 19 7 9 -1.</_>
                <_>
                  25 22 7 3 3.</_></rects>
              <tilted>0</tilted></feature>
            <threshold>-0.0137246800586581</threshold>
            <left_val>-0.8917812705039978</left_val>
            <right_val>0.0939989387989044</right_val></_></_>
        <_>
          <!-- tree 12 -->
          <_>
            <!-- root node -->
            <feature>
              <rects>
                <_>
                  6 4 20 12 -1.</_>
                <_>
                  6 8 20 4 3.</_></rects>
              <tilted>0</tilted></feature>
            <threshold>-0.0682680904865265</threshold>
            <left_val>0.4022394120693207</left_val>
            <right_val>-0.2203454971313477</right_val></_></_>
        <_>
          <!-- tree 13 -->
          <_>
            <!-- root node -->
            <feature>
              <rects>
                <_>
                  24 0 8 9 -1.</_>
                <_>
                  24 3 8 3 3.</_></rects>
              <tilted>0</tilted></feature>
            <threshold>0.0224659703671932</threshold>
            <left_val>0.1068371012806892</left_val>
            <right_val>-0.8553705811500549</right_val></_></_>
        <_>
          <!-- tree 14 -->
          <_>
            <!-- root node -->
            <feature>
              <rects>
                <_>
                  12 4 8 9 -1.</_>
                <_>
                  12 7 8 3 3.</_></rects>
              <tilted>0</tilted></feature>
            <threshold>0.0264122691005468</threshold>
            <left_val>-0.1743808984756470</left_val>
            <right_val>0.4710958003997803</right_val></_></_>
        <_>
          <!-- tree 15 -->
          <_>
            <!-- root node -->
            <feature>
              <rects>
                <_>
                  11 8 10 6 -1.</_>
                <_>
                  11 10 10 2 3.</_></rects>
              <tilted>0</tilted></feature>
            <threshold>0.0205336697399616</threshold>
            <left_val>-0.1089745014905930</left_val>
            <right_val>0.6637343764305115</right_val></_></_>
        <_>
          <!-- tree 16 -->
          <_>
            <!-- root node -->
            <feature>
              <rects>
                <_>
                  0 3 6 9 -1.</_>
                <_>
                  0 6 6 3 3.</_></rects>
              <tilted>0</tilted></feature>
            <threshold>0.0199819207191467</threshold>
            <left_val>0.0947247669100761</left_val>
            <right_val>-0.8773269057273865</right_val></_></_>
        <_>
          <!-- tree 17 -->
          <_>
            <!-- root node -->
            <feature>
              <rects>
                <_>
                  24 0 8 9 -1.</_>
                <_>
                  24 3 8 3 3.</_></rects>
              <tilted>0</tilted></feature>
            <threshold>1.3595880009233952e-003</threshold>
            <left_val>-0.2881920039653778</left_val>
            <right_val>0.1667519062757492</right_val></_></_>
        <_>
          <!-- tree 18 -->
          <_>
            <!-- root node -->
            <feature>
              <rects>
                <_>
                  0 1 9 6 -1.</_>
                <_>
                  0 3 9 2 3.</_></rects>
              <tilted>0</tilted></feature>
            <threshold>7.9774204641580582e-003</threshold>
            <left_val>0.1013465970754623</left_val>
            <right_val>-0.7561919093132019</right_val></_></_>
        <_>
          <!-- tree 19 -->
          <_>
            <!-- root node -->
            <feature>
              <rects>
                <_>
                  13 15 7 9 -1.</_>
                <_>
                  13 18 7 3 3.</_></rects>
              <tilted>0</tilted></feature>
            <threshold>0.0201787203550339</threshold>
            <left_val>-0.1543589979410172</left_val>
            <right_val>0.5113893151283264</right_val></_></_>
        <_>
          <!-- tree 20 -->
          <_>
            <!-- root node -->
            <feature>
              <rects>
                <_>
                  1 14 12 5 -1.</_>
                <_>
                  5 14 4 5 3.</_></rects>
              <tilted>0</tilted></feature>
            <threshold>-3.7802730221301317e-003</threshold>
            <left_val>0.2322990000247955</left_val>
            <right_val>-0.3765631914138794</right_val></_></_>
        <_>
          <!-- tree 21 -->
          <_>
            <!-- root node -->
            <feature>
              <rects>
                <_>
                  13 17 6 11 -1.</_>
                <_>
                  13 17 3 11 2.</_></rects>
              <tilted>0</tilted></feature>
            <threshold>-5.9170788154006004e-003</threshold>
            <left_val>-0.9162657856941223</left_val>
            <right_val>0.0849734023213387</right_val></_></_>
        <_>
          <!-- tree 22 -->
          <_>
            <!-- root node -->
            <feature>
              <rects>
                <_>
                  11 9 10 17 -1.</_>
                <_>
                  16 9 5 17 2.</_></rects>
              <tilted>0</tilted></feature>
            <threshold>-0.0161059796810150</threshold>
            <left_val>-0.9594423770904541</left_val>
            <right_val>0.0516674593091011</right_val></_></_>
        <_>
          <!-- tree 23 -->
          <_>
            <!-- root node -->
            <feature>
              <rects>
                <_>
                  16 6 6 22 -1.</_>
                <_>
                  19 6 3 11 2.</_>
                <_>
                  16 17 3 11 2.</_></rects>
              <tilted>0</tilted></feature>
            <threshold>-1.2392189819365740e-003</threshold>
            <left_val>0.1479967981576920</left_val>
            <right_val>-0.2584939002990723</right_val></_></_>
        <_>
          <!-- tree 24 -->
          <_>
            <!-- root node -->
            <feature>
              <rects>
                <_>
                  0 17 9 6 -1.</_>
                <_>
                  0 19 9 2 3.</_></rects>
              <tilted>0</tilted></feature>
            <threshold>0.0109261600300670</threshold>
            <left_val>0.0743206217885017</left_val>
            <right_val>-0.8724563121795654</right_val></_></_></trees>
      <stage_threshold>-2.0153880119323730</stage_threshold>
      <parent>8</parent>
      <next>-1</next></_>
    <_>
      <!-- stage 10 -->
      <trees>
        <_>
          <!-- tree 0 -->
          <_>
            <!-- root node -->
            <feature>
              <rects>
                <_>
                  4 10 3 18 -1.</_>
                <_>
                  4 19 3 9 2.</_></rects>
              <tilted>0</tilted></feature>
            <threshold>0.0152099002152681</threshold>
            <left_val>-0.5726755261421204</left_val>
            <right_val>0.2812327146530151</right_val></_></_>
        <_>
          <!-- tree 1 -->
          <_>
            <!-- root node -->
            <feature>
              <rects>
                <_>
                  5 24 22 4 -1.</_>
                <_>
                  5 26 22 2 2.</_></rects>
              <tilted>0</tilted></feature>
            <threshold>8.6783934384584427e-003</threshold>
            <left_val>-0.3595935106277466</left_val>
            <right_val>0.3749943971633911</right_val></_></_>
        <_>
          <!-- tree 2 -->
          <_>
            <!-- root node -->
            <feature>
              <rects>
                <_>
                  7 6 18 9 -1.</_>
                <_>
                  7 9 18 3 3.</_></rects>
              <tilted>0</tilted></feature>
            <threshold>-0.0408031009137630</threshold>
            <left_val>0.4334467053413391</left_val>
            <right_val>-0.2235525995492935</right_val></_></_>
        <_>
          <!-- tree 3 -->
          <_>
            <!-- root node -->
            <feature>
              <rects>
                <_>
                  26 14 6 9 -1.</_>
                <_>
                  26 17 6 3 3.</_></rects>
              <tilted>0</tilted></feature>
            <threshold>-4.9545578658580780e-003</threshold>
            <left_val>-0.6912904977798462</left_val>
            <right_val>0.1292878985404968</right_val></_></_>
        <_>
          <!-- tree 4 -->
          <_>
            <!-- root node -->
            <feature>
              <rects>
                <_>
                  0 5 4 9 -1.</_>
                <_>
                  2 5 2 9 2.</_></rects>
              <tilted>0</tilted></feature>
            <threshold>-1.4438519719988108e-003</threshold>
            <left_val>0.2597871124744415</left_val>
            <right_val>-0.3416793048381805</right_val></_></_>
        <_>
          <!-- tree 5 -->
          <_>
            <!-- root node -->
            <feature>
              <rects>
                <_>
                  13 9 6 9 -1.</_>
                <_>
                  13 12 6 3 3.</_></rects>
              <tilted>0</tilted></feature>
            <threshold>-0.0167675390839577</threshold>
            <left_val>0.4074526131153107</left_val>
            <right_val>-0.2293998003005981</right_val></_></_>
        <_>
          <!-- tree 6 -->
          <_>
            <!-- root node -->
            <feature>
              <rects>
                <_>
                  1 2 15 26 -1.</_>
                <_>
                  1 15 15 13 2.</_></rects>
              <tilted>0</tilted></feature>
            <threshold>0.0890581607818604</threshold>
            <left_val>0.1100106015801430</left_val>
            <right_val>-0.9153131842613220</right_val></_></_>
        <_>
          <!-- tree 7 -->
          <_>
            <!-- root node -->
            <feature>
              <rects>
                <_>
                  14 0 13 28 -1.</_>
                <_>
                  14 14 13 14 2.</_></rects>
              <tilted>0</tilted></feature>
            <threshold>-0.0554648898541927</threshold>
            <left_val>-0.8482404947280884</left_val>
            <right_val>0.0461927987635136</right_val></_></_>
        <_>
          <!-- tree 8 -->
          <_>
            <!-- root node -->
            <feature>
              <rects>
                <_>
                  2 0 12 23 -1.</_>
                <_>
                  6 0 4 23 3.</_></rects>
              <tilted>0</tilted></feature>
            <threshold>-0.0108039304614067</threshold>
            <left_val>0.2140866070985794</left_val>
            <right_val>-0.4006694853305817</right_val></_></_>
        <_>
          <!-- tree 9 -->
          <_>
            <!-- root node -->
            <feature>
              <rects>
                <_>
                  2 0 28 26 -1.</_>
                <_>
                  2 0 14 26 2.</_></rects>
              <tilted>0</tilted></feature>
            <threshold>-0.0328865312039852</threshold>
            <left_val>-0.9301618933677673</left_val>
            <right_val>0.0844030827283859</right_val></_></_>
        <_>
          <!-- tree 10 -->
          <_>
            <!-- root node -->
            <feature>
              <rects>
                <_>
                  0 0 32 24 -1.</_>
                <_>
                  16 0 16 24 2.</_></rects>
              <tilted>0</tilted></feature>
            <threshold>-0.0272597800940275</threshold>
            <left_val>-0.9010717272758484</left_val>
            <right_val>0.0687395483255386</right_val></_></_>
        <_>
          <!-- tree 11 -->
          <_>
            <!-- root node -->
            <feature>
              <rects>
                <_>
                  21 5 10 15 -1.</_>
                <_>
                  21 10 10 5 3.</_></rects>
              <tilted>0</tilted></feature>
            <threshold>-0.0340566411614418</threshold>
            <left_val>0.1778203994035721</left_val>
            <right_val>-0.4928277134895325</right_val></_></_>
        <_>
          <!-- tree 12 -->
          <_>
            <!-- root node -->
            <feature>
              <rects>
                <_>
                  8 2 16 12 -1.</_>
                <_>
                  8 6 16 4 3.</_></rects>
              <tilted>0</tilted></feature>
            <threshold>-0.0584218502044678</threshold>
            <left_val>0.6886103153228760</left_val>
            <right_val>-0.1680084019899368</right_val></_></_>
        <_>
          <!-- tree 13 -->
          <_>
            <!-- root node -->
            <feature>
              <rects>
                <_>
                  19 0 6 6 -1.</_>
                <_>
                  19 3 6 3 2.</_></rects>
              <tilted>0</tilted></feature>
            <threshold>1.7571860225871205e-003</threshold>
            <left_val>-0.2651323080062866</left_val>
            <right_val>0.3197593986988068</right_val></_></_>
        <_>
          <!-- tree 14 -->
          <_>
            <!-- root node -->
            <feature>
              <rects>
                <_>
                  0 26 32 2 -1.</_>
                <_>
                  16 26 16 2 2.</_></rects>
              <tilted>0</tilted></feature>
            <threshold>-0.0103680696338415</threshold>
            <left_val>-0.9234722852706909</left_val>
            <right_val>0.0850289165973663</right_val></_></_>
        <_>
          <!-- tree 15 -->
          <_>
            <!-- root node -->
            <feature>
              <rects>
                <_>
                  14 23 10 4 -1.</_>
                <_>
                  14 23 5 4 2.</_></rects>
              <tilted>0</tilted></feature>
            <threshold>-1.0694819502532482e-003</threshold>
            <left_val>0.1947897970676422</left_val>
            <right_val>-0.3020826876163483</right_val></_></_>
        <_>
          <!-- tree 16 -->
          <_>
            <!-- root node -->
            <feature>
              <rects>
                <_>
                  11 20 8 6 -1.</_>
                <_>
                  11 23 8 3 2.</_></rects>
              <tilted>0</tilted></feature>
            <threshold>9.9219866096973419e-003</threshold>
            <left_val>-0.1994623988866806</left_val>
            <right_val>0.4806194007396698</right_val></_></_>
        <_>
          <!-- tree 17 -->
          <_>
            <!-- root node -->
            <feature>
              <rects>
                <_>
                  10 17 12 6 -1.</_>
                <_>
                  10 19 12 2 3.</_></rects>
              <tilted>0</tilted></feature>
            <threshold>8.9960135519504547e-003</threshold>
            <left_val>-0.1774089932441711</left_val>
            <right_val>0.4652543962001801</right_val></_></_>
        <_>
          <!-- tree 18 -->
          <_>
            <!-- root node -->
            <feature>
              <rects>
                <_>
                  0 26 32 2 -1.</_>
                <_>
                  16 26 16 2 2.</_></rects>
              <tilted>0</tilted></feature>
            <threshold>0.0103167602792382</threshold>
            <left_val>0.0958474725484848</left_val>
            <right_val>-0.8697165846824646</right_val></_></_></trees>
      <stage_threshold>-1.5209319591522217</stage_threshold>
      <parent>9</parent>
      <next>-1</next></_>
    <_>
      <!-- stage 11 -->
      <trees>
        <_>
          <!-- tree 0 -->
          <_>
            <!-- root node -->
            <feature>
              <rects>
                <_>
                  0 11 8 10 -1.</_>
                <_>
                  4 11 4 10 2.</_></rects>
              <tilted>0</tilted></feature>
            <threshold>-7.3213041760027409e-003</threshold>
            <left_val>0.3483478128910065</left_val>
            <right_val>-0.6043112874031067</right_val></_></_>
        <_>
          <!-- tree 1 -->
          <_>
            <!-- root node -->
            <feature>
              <rects>
                <_>
                  1 1 30 5 -1.</_>
                <_>
                  11 1 10 5 3.</_></rects>
              <tilted>0</tilted></feature>
            <threshold>0.0164338909089565</threshold>
            <left_val>-0.3372792899608612</left_val>
            <right_val>0.3711454868316650</right_val></_></_>
        <_>
          <!-- tree 2 -->
          <_>
            <!-- root node -->
            <feature>
              <rects>
                <_>
                  0 0 11 18 -1.</_>
                <_>
                  0 9 11 9 2.</_></rects>
              <tilted>0</tilted></feature>
            <threshold>-0.0292727407068014</threshold>
            <left_val>0.1612997055053711</left_val>
            <right_val>-0.6769868731498718</right_val></_></_>
        <_>
          <!-- tree 3 -->
          <_>
            <!-- root node -->
            <feature>
              <rects>
                <_>
                  1 22 30 3 -1.</_>
                <_>
                  11 22 10 3 3.</_></rects>
              <tilted>0</tilted></feature>
            <threshold>-0.0155097097158432</threshold>
            <left_val>0.3808158040046692</left_val>
            <right_val>-0.3180558979511261</right_val></_></_>
        <_>
          <!-- tree 4 -->
          <_>
            <!-- root node -->
            <feature>
              <rects>
                <_>
                  0 18 6 9 -1.</_>
                <_>
                  0 21 6 3 3.</_></rects>
              <tilted>0</tilted></feature>
            <threshold>8.7544256821274757e-003</threshold>
            <left_val>0.1189071014523506</left_val>
            <right_val>-0.8510273098945618</right_val></_></_>
        <_>
          <!-- tree 5 -->
          <_>
            <!-- root node -->
            <feature>
              <rects>
                <_>
                  26 18 6 9 -1.</_>
                <_>
                  26 21 6 3 3.</_></rects>
              <tilted>0</tilted></feature>
            <threshold>-0.0116611300036311</threshold>
            <left_val>-0.8712105154991150</left_val>
            <right_val>0.0555907189846039</right_val></_></_>
        <_>
          <!-- tree 6 -->
          <_>
            <!-- root node -->
            <feature>
              <rects>
                <_>
                  4 0 14 28 -1.</_>
                <_>
                  4 14 14 14 2.</_></rects>
              <tilted>0</tilted></feature>
            <threshold>-0.0504915900528431</threshold>
            <left_val>-0.8699072003364563</left_val>
            <right_val>0.0834789797663689</right_val></_></_>
        <_>
          <!-- tree 7 -->
          <_>
            <!-- root node -->
            <feature>
              <rects>
                <_>
                  14 8 8 5 -1.</_>
                <_>
                  14 8 4 5 2.</_></rects>
              <tilted>0</tilted></feature>
            <threshold>6.8885949440300465e-004</threshold>
            <left_val>-0.2457346022129059</left_val>
            <right_val>0.1611007004976273</right_val></_></_>
        <_>
          <!-- tree 8 -->
          <_>
            <!-- root node -->
            <feature>
              <rects>
                <_>
                  0 18 6 9 -1.</_>
                <_>
                  0 21 6 3 3.</_></rects>
              <tilted>0</tilted></feature>
            <threshold>-9.7706904634833336e-003</threshold>
            <left_val>-0.8088061809539795</left_val>
            <right_val>0.0903910398483276</right_val></_></_>
        <_>
          <!-- tree 9 -->
          <_>
            <!-- root node -->
            <feature>
              <rects>
                <_>
                  3 22 27 6 -1.</_>
                <_>
                  3 25 27 3 2.</_></rects>
              <tilted>0</tilted></feature>
            <threshold>0.0188630502671003</threshold>
            <left_val>-0.2719792127609253</left_val>
            <right_val>0.2894727885723114</right_val></_></_>
        <_>
          <!-- tree 10 -->
          <_>
            <!-- root node -->
            <feature>
              <rects>
                <_>
                  10 1 12 25 -1.</_>
                <_>
                  16 1 6 25 2.</_></rects>
              <tilted>0</tilted></feature>
            <threshold>-0.0201372094452381</threshold>
            <left_val>-0.8608503937721252</left_val>
            <right_val>0.0899811834096909</right_val></_></_>
        <_>
          <!-- tree 11 -->
          <_>
            <!-- root node -->
            <feature>
              <rects>
                <_>
                  8 16 24 8 -1.</_>
                <_>
                  16 16 8 8 3.</_></rects>
              <tilted>0</tilted></feature>
            <threshold>-0.0431703291833401</threshold>
            <left_val>-0.8499963283538818</left_val>
            <right_val>0.0267773699015379</right_val></_></_>
        <_>
          <!-- tree 12 -->
          <_>
            <!-- root node -->
            <feature>
              <rects>
                <_>
                  0 16 24 8 -1.</_>
                <_>
                  8 16 8 8 3.</_></rects>
              <tilted>0</tilted></feature>
            <threshold>-0.0370228588581085</threshold>
            <left_val>-0.8483427762985230</left_val>
            <right_val>0.0591779500246048</right_val></_></_>
        <_>
          <!-- tree 13 -->
          <_>
            <!-- root node -->
            <feature>
              <rects>
                <_>
                  12 19 20 6 -1.</_>
                <_>
                  22 19 10 3 2.</_>
                <_>
                  12 22 10 3 2.</_></rects>
              <tilted>0</tilted></feature>
            <threshold>7.7139269560575485e-003</threshold>
            <left_val>-0.1301410049200058</left_val>
            <right_val>0.5044046044349670</right_val></_></_>
        <_>
          <!-- tree 14 -->
          <_>
            <!-- root node -->
            <feature>
              <rects>
                <_>
                  4 24 24 4 -1.</_>
                <_>
                  12 24 8 4 3.</_></rects>
              <tilted>0</tilted></feature>
            <threshold>-0.0106673100963235</threshold>
            <left_val>0.3419058918952942</left_val>
            <right_val>-0.2155635058879852</right_val></_></_>
        <_>
          <!-- tree 15 -->
          <_>
            <!-- root node -->
            <feature>
              <rects>
                <_>
                  26 6 5 8 -1.</_>
                <_>
                  26 10 5 4 2.</_></rects>
              <tilted>0</tilted></feature>
            <threshold>-7.1539250202476978e-003</threshold>
            <left_val>0.1993898004293442</left_val>
            <right_val>-0.4453251063823700</right_val></_></_>
        <_>
          <!-- tree 16 -->
          <_>
            <!-- root node -->
            <feature>
              <rects>
                <_>
                  4 5 24 13 -1.</_>
                <_>
                  12 5 8 13 3.</_></rects>
              <tilted>0</tilted></feature>
            <threshold>0.0185362901538610</threshold>
            <left_val>-0.2981857061386108</left_val>
            <right_val>0.2437243014574051</right_val></_></_>
        <_>
          <!-- tree 17 -->
          <_>
            <!-- root node -->
            <feature>
              <rects>
                <_>
                  11 15 20 4 -1.</_>
                <_>
                  21 15 10 2 2.</_>
                <_>
                  11 17 10 2 2.</_></rects>
              <tilted>0</tilted></feature>
            <threshold>5.9543219394981861e-003</threshold>
            <left_val>-0.1339935064315796</left_val>
            <right_val>0.4642305076122284</right_val></_></_>
        <_>
          <!-- tree 18 -->
          <_>
            <!-- root node -->
            <feature>
              <rects>
                <_>
                  0 22 9 6 -1.</_>
                <_>
                  0 24 9 2 3.</_></rects>
              <tilted>0</tilted></feature>
            <threshold>6.4737568609416485e-003</threshold>
            <left_val>0.0984523668885231</left_val>
            <right_val>-0.7665057778358460</right_val></_></_>
        <_>
          <!-- tree 19 -->
          <_>
            <!-- root node -->
            <feature>
              <rects>
                <_>
                  23 22 9 6 -1.</_>
                <_>
                  23 24 9 2 3.</_></rects>
              <tilted>0</tilted></feature>
            <threshold>-0.0113483201712370</threshold>
            <left_val>-0.9329320192337036</left_val>
            <right_val>0.0567544884979725</right_val></_></_>
        <_>
          <!-- tree 20 -->
          <_>
            <!-- root node -->
            <feature>
              <rects>
                <_>
                  1 14 20 4 -1.</_>
                <_>
                  1 14 10 2 2.</_>
                <_>
                  11 16 10 2 2.</_></rects>
              <tilted>0</tilted></feature>
            <threshold>-0.0111719798296690</threshold>
            <left_val>0.6083601117134094</left_val>
            <right_val>-0.1368608027696610</right_val></_></_>
        <_>
          <!-- tree 21 -->
          <_>
            <!-- root node -->
            <feature>
              <rects>
                <_>
                  2 12 30 2 -1.</_>
                <_>
                  12 12 10 2 3.</_></rects>
              <tilted>0</tilted></feature>
            <threshold>-3.0467200558632612e-003</threshold>
            <left_val>0.3841943144798279</left_val>
            <right_val>-0.2111313045024872</right_val></_></_></trees>
      <stage_threshold>-1.6679860353469849</stage_threshold>
      <parent>10</parent>
      <next>-1</next></_>
    <_>
      <!-- stage 12 -->
      <trees>
        <_>
          <!-- tree 0 -->
          <_>
            <!-- root node -->
            <feature>
              <rects>
                <_>
                  10 2 12 10 -1.</_>
                <_>
                  10 7 12 5 2.</_></rects>
              <tilted>0</tilted></feature>
            <threshold>-0.0379476584494114</threshold>
            <left_val>0.3783476948738098</left_val>
            <right_val>-0.3541659116744995</right_val></_></_>
        <_>
          <!-- tree 1 -->
          <_>
            <!-- root node -->
            <feature>
              <rects>
                <_>
                  11 18 10 9 -1.</_>
                <_>
                  11 21 10 3 3.</_></rects>
              <tilted>0</tilted></feature>
            <threshold>-0.0190998092293739</threshold>
            <left_val>0.5047891139984131</left_val>
            <right_val>-0.2069400995969772</right_val></_></_>
        <_>
          <!-- tree 2 -->
          <_>
            <!-- root node -->
            <feature>
              <rects>
                <_>
                  0 14 6 14 -1.</_>
                <_>
                  0 14 3 7 2.</_>
                <_>
                  3 21 3 7 2.</_></rects>
              <tilted>0</tilted></feature>
            <threshold>3.5687880590558052e-003</threshold>
            <left_val>-0.3826813101768494</left_val>
            <right_val>0.2385957986116409</right_val></_></_>
        <_>
          <!-- tree 3 -->
          <_>
            <!-- root node -->
            <feature>
              <rects>
                <_>
                  8 2 16 12 -1.</_>
                <_>
                  8 6 16 4 3.</_></rects>
              <tilted>0</tilted></feature>
            <threshold>0.0714169666171074</threshold>
            <left_val>-0.1647690981626511</left_val>
            <right_val>0.4766029119491577</right_val></_></_>
        <_>
          <!-- tree 4 -->
          <_>
            <!-- root node -->
            <feature>
              <rects>
                <_>
                  0 1 7 9 -1.</_>
                <_>
                  0 4 7 3 3.</_></rects>
              <tilted>0</tilted></feature>
            <threshold>0.0187655594199896</threshold>
            <left_val>0.1025160029530525</left_val>
            <right_val>-0.8301187753677368</right_val></_></_>
        <_>
          <!-- tree 5 -->
          <_>
            <!-- root node -->
            <feature>
              <rects>
                <_>
                  20 8 12 20 -1.</_>
                <_>
                  20 18 12 10 2.</_></rects>
              <tilted>0</tilted></feature>
            <threshold>0.0443913899362087</threshold>
            <left_val>-0.5230128169059753</left_val>
            <right_val>0.1448847055435181</right_val></_></_>
        <_>
          <!-- tree 6 -->
          <_>
            <!-- root node -->
            <feature>
              <rects>
                <_>
                  0 6 28 22 -1.</_>
                <_>
                  0 17 28 11 2.</_></rects>
              <tilted>0</tilted></feature>
            <threshold>0.2390788048505783</threshold>
            <left_val>0.0724565833806992</left_val>
            <right_val>-0.9722477197647095</right_val></_></_>
        <_>
          <!-- tree 7 -->
          <_>
            <!-- root node -->
            <feature>
              <rects>
                <_>
                  4 26 24 2 -1.</_>
                <_>
                  4 27 24 1 2.</_></rects>
              <tilted>0</tilted></feature>
            <threshold>1.3970870058983564e-003</threshold>
            <left_val>-0.3236210942268372</left_val>
            <right_val>0.2362464964389801</right_val></_></_>
        <_>
          <!-- tree 8 -->
          <_>
            <!-- root node -->
            <feature>
              <rects>
                <_>
                  2 12 4 15 -1.</_>
                <_>
                  2 17 4 5 3.</_></rects>
              <tilted>0</tilted></feature>
            <threshold>-9.1131571680307388e-003</threshold>
            <left_val>-0.8507230281829834</left_val>
            <right_val>0.0656956434249878</right_val></_></_>
        <_>
          <!-- tree 9 -->
          <_>
            <!-- root node -->
            <feature>
              <rects>
                <_>
                  23 22 9 6 -1.</_>
                <_>
                  23 24 9 2 3.</_></rects>
              <tilted>0</tilted></feature>
            <threshold>8.1948488950729370e-003</threshold>
            <left_val>0.0683297514915466</left_val>
            <right_val>-0.7504928708076477</right_val></_></_>
        <_>
          <!-- tree 10 -->
          <_>
            <!-- root node -->
            <feature>
              <rects>
                <_>
                  7 7 18 6 -1.</_>
                <_>
                  13 7 6 6 3.</_></rects>
              <tilted>0</tilted></feature>
            <threshold>4.3863649480044842e-003</threshold>
            <left_val>-0.3816694915294647</left_val>
            <right_val>0.1887895017862320</right_val></_></_>
        <_>
          <!-- tree 11 -->
          <_>
            <!-- root node -->
            <feature>
              <rects>
                <_>
                  8 12 24 12 -1.</_>
                <_>
                  16 12 8 12 3.</_></rects>
              <tilted>0</tilted></feature>
            <threshold>-0.0517271906137466</threshold>
            <left_val>-0.8280975222587585</left_val>
            <right_val>0.0676267966628075</right_val></_></_>
        <_>
          <!-- tree 12 -->
          <_>
            <!-- root node -->
            <feature>
              <rects>
                <_>
                  10 15 12 9 -1.</_>
                <_>
                  10 18 12 3 3.</_></rects>
              <tilted>0</tilted></feature>
            <threshold>-0.0210666898638010</threshold>
            <left_val>0.5676180720329285</left_val>
            <right_val>-0.1489107012748718</right_val></_></_>
        <_>
          <!-- tree 13 -->
          <_>
            <!-- root node -->
            <feature>
              <rects>
                <_>
                  10 15 12 13 -1.</_>
                <_>
                  10 15 6 13 2.</_></rects>
              <tilted>0</tilted></feature>
            <threshold>-0.0135610504075885</threshold>
            <left_val>-0.8808118104934692</left_val>
            <right_val>0.1117141991853714</right_val></_></_>
        <_>
          <!-- tree 14 -->
          <_>
            <!-- root node -->
            <feature>
              <rects>
                <_>
                  0 22 9 6 -1.</_>
                <_>
                  0 24 9 2 3.</_></rects>
              <tilted>0</tilted></feature>
            <threshold>-8.3868606016039848e-003</threshold>
            <left_val>-0.8643230199813843</left_val>
            <right_val>0.0440340302884579</right_val></_></_>
        <_>
          <!-- tree 15 -->
          <_>
            <!-- root node -->
            <feature>
              <rects>
                <_>
                  20 3 11 12 -1.</_>
                <_>
                  20 9 11 6 2.</_></rects>
              <tilted>0</tilted></feature>
            <threshold>-0.0367891304194927</threshold>
            <left_val>0.1634704023599625</left_val>
            <right_val>-0.3487423062324524</right_val></_></_>
        <_>
          <!-- tree 16 -->
          <_>
            <!-- root node -->
            <feature>
              <rects>
                <_>
                  0 1 32 4 -1.</_>
                <_>
                  0 1 16 2 2.</_>
                <_>
                  16 3 16 2 2.</_></rects>
              <tilted>0</tilted></feature>
            <threshold>7.7559910714626312e-003</threshold>
            <left_val>0.0839937627315521</left_val>
            <right_val>-0.7448756098747253</right_val></_></_>
        <_>
          <!-- tree 17 -->
          <_>
            <!-- root node -->
            <feature>
